digraph Tree {
node [shape=box] ;
0 [label="coupon <= 0.0\nentropy = 0.276\nsamples = 124507\nvalue = [118579, 5928]"] ;
1 [label="distance_day <= 30.5\nentropy = 0.05\nsamples = 110686\nvalue = [110064, 622]"] ;
0 -> 1 [labeldistance=2.5, labelangle=45, headlabel="True"] ;
2 [label="chinese_subscribe_num <= 0.035\nentropy = 0.177\nsamples = 19019\nvalue = [18513, 506]"] ;
1 -> 2 ;
3 [label="course_order_num <= 1.017\nentropy = 0.07\nsamples = 13296\nvalue = [13185, 111]"] ;
2 -> 3 ;
4 [label="study_num <= 0.5\nentropy = 0.053\nsamples = 13115\nvalue = [13036, 79]"] ;
3 -> 4 ;
5 [label="camp_num <= 0.5\nentropy = 0.034\nsamples = 11162\nvalue = [11123, 39]"] ;
4 -> 5 ;
6 [label="login_day <= -0.5\nentropy = 0.131\nsamples = 1271\nvalue = [1248, 23]"] ;
5 -> 6 ;
7 [label="add_friend <= 0.5\nentropy = 0.432\nsamples = 214\nvalue = [195, 19]"] ;
6 -> 7 ;
8 [label="entropy = 0.0\nsamples = 45\nvalue = [45, 0]"] ;
7 -> 8 ;
9 [label="age_month <= 25.5\nentropy = 0.507\nsamples = 169\nvalue = [150, 19]"] ;
7 -> 9 ;
10 [label="entropy = 0.0\nsamples = 31\nvalue = [31, 0]"] ;
9 -> 10 ;
11 [label="entropy = 0.578\nsamples = 138\nvalue = [119, 19]"] ;
9 -> 11 ;
12 [label="lightcoursetab <= 0.5\nentropy = 0.036\nsamples = 1057\nvalue = [1053, 4]"] ;
6 -> 12 ;
13 [label="entropy = 0.0\nsamples = 889\nvalue = [889, 0]"] ;
12 -> 13 ;
14 [label="login_diff_time <= 0.585\nentropy = 0.162\nsamples = 168\nvalue = [164, 4]"] ;
12 -> 14 ;
15 [label="entropy = 1.0\nsamples = 6\nvalue = [3, 3]"] ;
14 -> 15 ;
16 [label="entropy = 0.054\nsamples = 162\nvalue = [161, 1]"] ;
14 -> 16 ;
17 [label="first_order_price <= 0.505\nentropy = 0.017\nsamples = 9891\nvalue = [9875, 16]"] ;
5 -> 17 ;
18 [label="camp_num <= 2.5\nentropy = 0.007\nsamples = 8732\nvalue = [8727, 5]"] ;
17 -> 18 ;
19 [label="entropy = 0.0\nsamples = 7395\nvalue = [7395, 0]"] ;
18 -> 19 ;
20 [label="login_time <= 39.5\nentropy = 0.036\nsamples = 1337\nvalue = [1332, 5]"] ;
18 -> 20 ;
21 [label="entropy = 0.0\nsamples = 1021\nvalue = [1021, 0]"] ;
20 -> 21 ;
22 [label="entropy = 0.117\nsamples = 316\nvalue = [311, 5]"] ;
20 -> 22 ;
23 [label="answer_task <= 18.5\nentropy = 0.077\nsamples = 1159\nvalue = [1148, 11]"] ;
17 -> 23 ;
24 [label="task <= 10.5\nentropy = 0.104\nsamples = 808\nvalue = [797, 11]"] ;
23 -> 24 ;
25 [label="entropy = 0.028\nsamples = 359\nvalue = [358, 1]"] ;
24 -> 25 ;
26 [label="entropy = 0.154\nsamples = 449\nvalue = [439, 10]"] ;
24 -> 26 ;
27 [label="entropy = 0.0\nsamples = 351\nvalue = [351, 0]"] ;
23 -> 27 ;
28 [label="login_diff_time <= 0.815\nentropy = 0.144\nsamples = 1953\nvalue = [1913, 40]"] ;
4 -> 28 ;
29 [label="first_order_price <= 0.505\nentropy = 0.473\nsamples = 257\nvalue = [231, 26]"] ;
28 -> 29 ;
30 [label="camp_num <= 1.5\nentropy = 0.355\nsamples = 238\nvalue = [222, 16]"] ;
29 -> 30 ;
31 [label="video_play <= 33.5\nentropy = 0.768\nsamples = 49\nvalue = [38, 11]"] ;
30 -> 31 ;
32 [label="entropy = 0.454\nsamples = 42\nvalue = [38, 4]"] ;
31 -> 32 ;
33 [label="entropy = 0.0\nsamples = 7\nvalue = [0, 7]"] ;
31 -> 33 ;
34 [label="distance_day <= 22.5\nentropy = 0.176\nsamples = 189\nvalue = [184, 5]"] ;
30 -> 34 ;
35 [label="entropy = 0.052\nsamples = 169\nvalue = [168, 1]"] ;
34 -> 35 ;
36 [label="entropy = 0.722\nsamples = 20\nvalue = [16, 4]"] ;
34 -> 36 ;
37 [label="model_num <= 8.356\nentropy = 0.998\nsamples = 19\nvalue = [9, 10]"] ;
29 -> 37 ;
38 [label="entropy = 0.0\nsamples = 7\nvalue = [7, 0]"] ;
37 -> 38 ;
39 [label="video_play <= 1.0\nentropy = 0.65\nsamples = 12\nvalue = [2, 10]"] ;
37 -> 39 ;
40 [label="entropy = 0.0\nsamples = 2\nvalue = [2, 0]"] ;
39 -> 40 ;
41 [label="entropy = 0.0\nsamples = 10\nvalue = [0, 10]"] ;
39 -> 41 ;
42 [label="first_order_price <= 0.505\nentropy = 0.069\nsamples = 1696\nvalue = [1682, 14]"] ;
28 -> 42 ;
43 [label="model_num <= 9.881\nentropy = 0.039\nsamples = 1453\nvalue = [1447, 6]"] ;
42 -> 43 ;
44 [label="entropy = 0.0\nsamples = 965\nvalue = [965, 0]"] ;
43 -> 44 ;
45 [label="lightcoursetab <= 1.5\nentropy = 0.096\nsamples = 488\nvalue = [482, 6]"] ;
43 -> 45 ;
46 [label="entropy = 0.0\nsamples = 270\nvalue = [270, 0]"] ;
45 -> 46 ;
47 [label="entropy = 0.182\nsamples = 218\nvalue = [212, 6]"] ;
45 -> 47 ;
48 [label="answer_task <= 22.5\nentropy = 0.209\nsamples = 243\nvalue = [235, 8]"] ;
42 -> 48 ;
49 [label="age_month <= 98.5\nentropy = 0.341\nsamples = 126\nvalue = [118, 8]"] ;
48 -> 49 ;
50 [label="entropy = 0.28\nsamples = 124\nvalue = [118, 6]"] ;
49 -> 50 ;
51 [label="entropy = 0.0\nsamples = 2\nvalue = [0, 2]"] ;
49 -> 51 ;
52 [label="entropy = 0.0\nsamples = 117\nvalue = [117, 0]"] ;
48 -> 52 ;
53 [label="login_diff_time <= 0.845\nentropy = 0.673\nsamples = 181\nvalue = [149, 32]"] ;
3 -> 53 ;
54 [label="model_num <= 5.641\nentropy = 0.918\nsamples = 24\nvalue = [8, 16]"] ;
53 -> 54 ;
55 [label="entropy = 0.0\nsamples = 5\nvalue = [5, 0]"] ;
54 -> 55 ;
56 [label="mainpage <= 1.5\nentropy = 0.629\nsamples = 19\nvalue = [3, 16]"] ;
54 -> 56 ;
57 [label="model_num <= 17.103\nentropy = 0.971\nsamples = 5\nvalue = [3, 2]"] ;
56 -> 57 ;
58 [label="entropy = 0.0\nsamples = 3\nvalue = [3, 0]"] ;
57 -> 58 ;
59 [label="entropy = 0.0\nsamples = 2\nvalue = [0, 2]"] ;
57 -> 59 ;
60 [label="entropy = 0.0\nsamples = 14\nvalue = [0, 14]"] ;
56 -> 60 ;
61 [label="platform_num <= 11.427\nentropy = 0.475\nsamples = 157\nvalue = [141, 16]"] ;
53 -> 61 ;
62 [label="study_num <= 0.5\nentropy = 0.332\nsamples = 147\nvalue = [138, 9]"] ;
61 -> 62 ;
63 [label="entropy = 0.0\nsamples = 85\nvalue = [85, 0]"] ;
62 -> 63 ;
64 [label="login_time <= 165.0\nentropy = 0.598\nsamples = 62\nvalue = [53, 9]"] ;
62 -> 64 ;
65 [label="evaulationcenter <= 0.5\nentropy = 0.48\nsamples = 58\nvalue = [52, 6]"] ;
64 -> 65 ;
66 [label="entropy = 0.811\nsamples = 24\nvalue = [18, 6]"] ;
65 -> 66 ;
67 [label="entropy = 0.0\nsamples = 34\nvalue = [34, 0]"] ;
65 -> 67 ;
68 [label="progress_bar <= 41.0\nentropy = 0.811\nsamples = 4\nvalue = [1, 3]"] ;
64 -> 68 ;
69 [label="entropy = 0.0\nsamples = 3\nvalue = [0, 3]"] ;
68 -> 69 ;
70 [label="entropy = 0.0\nsamples = 1\nvalue = [1, 0]"] ;
68 -> 70 ;
71 [label="main_home2 <= 58.0\nentropy = 0.881\nsamples = 10\nvalue = [3, 7]"] ;
61 -> 71 ;
72 [label="entropy = 0.0\nsamples = 7\nvalue = [0, 7]"] ;
71 -> 72 ;
73 [label="entropy = 0.0\nsamples = 3\nvalue = [3, 0]"] ;
71 -> 73 ;
74 [label="camp_num <= 0.952\nentropy = 0.362\nsamples = 5723\nvalue = [5328, 395]"] ;
2 -> 74 ;
75 [label="login_diff_time <= 0.83\nentropy = 1.0\nsamples = 367\nvalue = [185, 182]"] ;
74 -> 75 ;
76 [label="age_month <= 2.18\nentropy = 0.842\nsamples = 244\nvalue = [66, 178]"] ;
75 -> 76 ;
77 [label="entropy = 0.0\nsamples = 22\nvalue = [22, 0]"] ;
76 -> 77 ;
78 [label="study_num <= 0.157\nentropy = 0.718\nsamples = 222\nvalue = [44, 178]"] ;
76 -> 78 ;
79 [label="add_friend <= 0.5\nentropy = 0.878\nsamples = 138\nvalue = [41, 97]"] ;
78 -> 79 ;
80 [label="click_notunlocked <= 1.5\nentropy = 0.469\nsamples = 10\nvalue = [9, 1]"] ;
79 -> 80 ;
81 [label="entropy = 0.0\nsamples = 9\nvalue = [9, 0]"] ;
80 -> 81 ;
82 [label="entropy = 0.0\nsamples = 1\nvalue = [0, 1]"] ;
80 -> 82 ;
83 [label="first_order_price <= 0.005\nentropy = 0.811\nsamples = 128\nvalue = [32, 96]"] ;
79 -> 83 ;
84 [label="entropy = 0.695\nsamples = 107\nvalue = [20, 87]"] ;
83 -> 84 ;
85 [label="entropy = 0.985\nsamples = 21\nvalue = [12, 9]"] ;
83 -> 85 ;
86 [label="math_subscribe_num <= 0.864\nentropy = 0.222\nsamples = 84\nvalue = [3, 81]"] ;
78 -> 86 ;
87 [label="entropy = 0.0\nsamples = 56\nvalue = [0, 56]"] ;
86 -> 87 ;
88 [label="login_time <= 59.5\nentropy = 0.491\nsamples = 28\nvalue = [3, 25]"] ;
86 -> 88 ;
89 [label="entropy = 0.267\nsamples = 22\nvalue = [1, 21]"] ;
88 -> 89 ;
90 [label="entropy = 0.918\nsamples = 6\nvalue = [2, 4]"] ;
88 -> 90 ;
91 [label="model_num <= 18.34\nentropy = 0.207\nsamples = 123\nvalue = [119, 4]"] ;
75 -> 91 ;
92 [label="login_diff_time <= 22.94\nentropy = 0.125\nsamples = 117\nvalue = [115, 2]"] ;
91 -> 92 ;
93 [label="click_dialog <= 1.5\nentropy = 0.072\nsamples = 116\nvalue = [115, 1]"] ;
92 -> 93 ;
94 [label="entropy = 0.0\nsamples = 101\nvalue = [101, 0]"] ;
93 -> 94 ;
95 [label="login_diff_time <= 1.3\nentropy = 0.353\nsamples = 15\nvalue = [14, 1]"] ;
93 -> 95 ;
96 [label="entropy = 0.0\nsamples = 13\nvalue = [13, 0]"] ;
95 -> 96 ;
97 [label="entropy = 1.0\nsamples = 2\nvalue = [1, 1]"] ;
95 -> 97 ;
98 [label="entropy = 0.0\nsamples = 1\nvalue = [0, 1]"] ;
92 -> 98 ;
99 [label="model_num <= 25.519\nentropy = 0.918\nsamples = 6\nvalue = [4, 2]"] ;
91 -> 99 ;
100 [label="login_day <= 3.5\nentropy = 0.918\nsamples = 3\nvalue = [1, 2]"] ;
99 -> 100 ;
101 [label="entropy = 0.0\nsamples = 1\nvalue = [1, 0]"] ;
100 -> 101 ;
102 [label="entropy = 0.0\nsamples = 2\nvalue = [0, 2]"] ;
100 -> 102 ;
103 [label="entropy = 0.0\nsamples = 3\nvalue = [3, 0]"] ;
99 -> 103 ;
104 [label="study_num <= 0.347\nentropy = 0.241\nsamples = 5356\nvalue = [5143, 213]"] ;
74 -> 104 ;
105 [label="first_order_price <= 0.322\nentropy = 0.116\nsamples = 3985\nvalue = [3923, 62]"] ;
104 -> 105 ;
106 [label="age_month <= 53.5\nentropy = 0.057\nsamples = 3169\nvalue = [3148, 21]"] ;
105 -> 106 ;
107 [label="entropy = 0.0\nsamples = 1105\nvalue = [1105, 0]"] ;
106 -> 107 ;
108 [label="launch_time <= 2.5\nentropy = 0.082\nsamples = 2064\nvalue = [2043, 21]"] ;
106 -> 108 ;
109 [label="login_day <= 4.5\nentropy = 0.065\nsamples = 1970\nvalue = [1955, 15]"] ;
108 -> 109 ;
110 [label="entropy = 0.114\nsamples = 789\nvalue = [777, 12]"] ;
109 -> 110 ;
111 [label="entropy = 0.026\nsamples = 1181\nvalue = [1178, 3]"] ;
109 -> 111 ;
112 [label="video_read <= 20.0\nentropy = 0.342\nsamples = 94\nvalue = [88, 6]"] ;
108 -> 112 ;
113 [label="entropy = 0.0\nsamples = 51\nvalue = [51, 0]"] ;
112 -> 113 ;
114 [label="entropy = 0.583\nsamples = 43\nvalue = [37, 6]"] ;
112 -> 114 ;
115 [label="login_diff_time <= 0.815\nentropy = 0.287\nsamples = 816\nvalue = [775, 41]"] ;
105 -> 115 ;
116 [label="next_nize <= 17.0\nentropy = 0.664\nsamples = 133\nvalue = [110, 23]"] ;
115 -> 116 ;
117 [label="first_order_price <= 0.817\nentropy = 0.087\nsamples = 91\nvalue = [90, 1]"] ;
116 -> 117 ;
118 [label="entropy = 0.0\nsamples = 1\nvalue = [0, 1]"] ;
117 -> 118 ;
119 [label="entropy = 0.0\nsamples = 90\nvalue = [90, 0]"] ;
117 -> 119 ;
120 [label="distance_day <= 6.0\nentropy = 0.998\nsamples = 42\nvalue = [20, 22]"] ;
116 -> 120 ;
121 [label="entropy = 0.567\nsamples = 15\nvalue = [13, 2]"] ;
120 -> 121 ;
122 [label="entropy = 0.826\nsamples = 27\nvalue = [7, 20]"] ;
120 -> 122 ;
123 [label="model_num <= 20.373\nentropy = 0.176\nsamples = 683\nvalue = [665, 18]"] ;
115 -> 123 ;
124 [label="model_num <= 10.887\nentropy = 0.139\nsamples = 665\nvalue = [652, 13]"] ;
123 -> 124 ;
125 [label="entropy = 0.071\nsamples = 468\nvalue = [464, 4]"] ;
124 -> 125 ;
126 [label="entropy = 0.268\nsamples = 197\nvalue = [188, 9]"] ;
124 -> 126 ;
127 [label="distance_day <= 19.504\nentropy = 0.852\nsamples = 18\nvalue = [13, 5]"] ;
123 -> 127 ;
128 [label="entropy = 0.991\nsamples = 9\nvalue = [4, 5]"] ;
127 -> 128 ;
129 [label="entropy = 0.0\nsamples = 9\nvalue = [9, 0]"] ;
127 -> 129 ;
130 [label="login_day <= 5.797\nentropy = 0.5\nsamples = 1371\nvalue = [1220, 151]"] ;
104 -> 130 ;
131 [label="math_subscribe_num <= 0.069\nentropy = 0.828\nsamples = 433\nvalue = [320, 113]"] ;
130 -> 131 ;
132 [label="course_order_num <= 1.21\nentropy = 0.615\nsamples = 316\nvalue = [268, 48]"] ;
131 -> 132 ;
133 [label="first_order_price <= 0.316\nentropy = 0.52\nsamples = 300\nvalue = [265, 35]"] ;
132 -> 133 ;
134 [label="entropy = 0.361\nsamples = 233\nvalue = [217, 16]"] ;
133 -> 134 ;
135 [label="entropy = 0.86\nsamples = 67\nvalue = [48, 19]"] ;
133 -> 135 ;
136 [label="model_num <= 13.285\nentropy = 0.696\nsamples = 16\nvalue = [3, 13]"] ;
132 -> 136 ;
137 [label="entropy = 0.0\nsamples = 11\nvalue = [0, 11]"] ;
136 -> 137 ;
138 [label="entropy = 0.971\nsamples = 5\nvalue = [3, 2]"] ;
136 -> 138 ;
139 [label="login_diff_time <= 1.1\nentropy = 0.991\nsamples = 117\nvalue = [52, 65]"] ;
131 -> 139 ;
140 [label="first_order_price <= 0.505\nentropy = 0.789\nsamples = 72\nvalue = [17, 55]"] ;
139 -> 140 ;
141 [label="entropy = 0.938\nsamples = 48\nvalue = [17, 31]"] ;
140 -> 141 ;
142 [label="entropy = 0.0\nsamples = 24\nvalue = [0, 24]"] ;
140 -> 142 ;
143 [label="next_nize <= 23.0\nentropy = 0.764\nsamples = 45\nvalue = [35, 10]"] ;
139 -> 143 ;
144 [label="entropy = 0.0\nsamples = 21\nvalue = [21, 0]"] ;
143 -> 144 ;
145 [label="entropy = 0.98\nsamples = 24\nvalue = [14, 10]"] ;
143 -> 145 ;
146 [label="model_num <= 12.257\nentropy = 0.245\nsamples = 938\nvalue = [900, 38]"] ;
130 -> 146 ;
147 [label="login_day <= 8.5\nentropy = 0.149\nsamples = 798\nvalue = [781, 17]"] ;
146 -> 147 ;
148 [label="learn_num <= 7.5\nentropy = 0.115\nsamples = 777\nvalue = [765, 12]"] ;
147 -> 148 ;
149 [label="entropy = 0.224\nsamples = 332\nvalue = [320, 12]"] ;
148 -> 149 ;
150 [label="entropy = 0.0\nsamples = 445\nvalue = [445, 0]"] ;
148 -> 150 ;
151 [label="distance_day <= 22.5\nentropy = 0.792\nsamples = 21\nvalue = [16, 5]"] ;
147 -> 151 ;
152 [label="entropy = 0.323\nsamples = 17\nvalue = [16, 1]"] ;
151 -> 152 ;
153 [label="entropy = 0.0\nsamples = 4\nvalue = [0, 4]"] ;
151 -> 153 ;
154 [label="distance_day <= 18.5\nentropy = 0.61\nsamples = 140\nvalue = [119, 21]"] ;
146 -> 154 ;
155 [label="coupon_visit <= 0.5\nentropy = 0.89\nsamples = 52\nvalue = [36, 16]"] ;
154 -> 155 ;
156 [label="entropy = 0.811\nsamples = 48\nvalue = [36, 12]"] ;
155 -> 156 ;
157 [label="entropy = 0.0\nsamples = 4\nvalue = [0, 4]"] ;
155 -> 157 ;
158 [label="distance_day <= 25.0\nentropy = 0.315\nsamples = 88\nvalue = [83, 5]"] ;
154 -> 158 ;
159 [label="entropy = 0.218\nsamples = 86\nvalue = [83, 3]"] ;
158 -> 159 ;
160 [label="entropy = 0.0\nsamples = 2\nvalue = [0, 2]"] ;
158 -> 160 ;
161 [label="course_order_num <= 1.5\nentropy = 0.014\nsamples = 91667\nvalue = [91551, 116]"] ;
1 -> 161 ;
162 [label="study_num <= 0.149\nentropy = 0.011\nsamples = 90764\nvalue = [90678, 86]"] ;
161 -> 162 ;
163 [label="distance_day <= 86.5\nentropy = 0.006\nsamples = 78539\nvalue = [78498, 41]"] ;
162 -> 163 ;
164 [label="main_home2 <= 603.0\nentropy = 0.012\nsamples = 31564\nvalue = [31530, 34]"] ;
163 -> 164 ;
165 [label="chinese_subscribe_num <= 0.5\nentropy = 0.012\nsamples = 31562\nvalue = [31530, 32]"] ;
164 -> 165 ;
166 [label="age_month <= 489.0\nentropy = 0.005\nsamples = 22469\nvalue = [22461, 8]"] ;
165 -> 166 ;
167 [label="login_diff_time <= 6.55\nentropy = 0.004\nsamples = 22465\nvalue = [22458, 7]"] ;
166 -> 167 ;
168 [label="entropy = 0.003\nsamples = 22322\nvalue = [22317, 5]"] ;
167 -> 168 ;
169 [label="entropy = 0.106\nsamples = 143\nvalue = [141, 2]"] ;
167 -> 169 ;
170 [label="model_num <= 11.514\nentropy = 0.811\nsamples = 4\nvalue = [3, 1]"] ;
166 -> 170 ;
171 [label="entropy = 0.0\nsamples = 3\nvalue = [3, 0]"] ;
170 -> 171 ;
172 [label="entropy = 0.0\nsamples = 1\nvalue = [0, 1]"] ;
170 -> 172 ;
173 [label="login_diff_time <= 31.435\nentropy = 0.026\nsamples = 9093\nvalue = [9069, 24]"] ;
165 -> 173 ;
174 [label="model_num <= 9.082\nentropy = 0.025\nsamples = 9091\nvalue = [9069, 22]"] ;
173 -> 174 ;
175 [label="entropy = 0.01\nsamples = 4735\nvalue = [4731, 4]"] ;
174 -> 175 ;
176 [label="entropy = 0.039\nsamples = 4356\nvalue = [4338, 18]"] ;
174 -> 176 ;
177 [label="entropy = 0.0\nsamples = 2\nvalue = [0, 2]"] ;
173 -> 177 ;
178 [label="entropy = 0.0\nsamples = 2\nvalue = [0, 2]"] ;
164 -> 178 ;
179 [label="learn_num <= 0.5\nentropy = 0.002\nsamples = 46975\nvalue = [46968, 7]"] ;
163 -> 179 ;
180 [label="login_diff_time <= 61.125\nentropy = 0.006\nsamples = 14592\nvalue = [14585, 7]"] ;
179 -> 180 ;
181 [label="mainpage <= 15.5\nentropy = 0.005\nsamples = 14591\nvalue = [14585, 6]"] ;
180 -> 181 ;
182 [label="first_order_price <= 0.505\nentropy = 0.004\nsamples = 14463\nvalue = [14459, 4]"] ;
181 -> 182 ;
183 [label="entropy = 0.001\nsamples = 13025\nvalue = [13024, 1]"] ;
182 -> 183 ;
184 [label="entropy = 0.022\nsamples = 1438\nvalue = [1435, 3]"] ;
182 -> 184 ;
185 [label="distance_day <= 98.5\nentropy = 0.116\nsamples = 128\nvalue = [126, 2]"] ;
181 -> 185 ;
186 [label="entropy = 0.567\nsamples = 15\nvalue = [13, 2]"] ;
185 -> 186 ;
187 [label="entropy = 0.0\nsamples = 113\nvalue = [113, 0]"] ;
185 -> 187 ;
188 [label="entropy = 0.0\nsamples = 1\nvalue = [0, 1]"] ;
180 -> 188 ;
189 [label="entropy = 0.0\nsamples = 32383\nvalue = [32383, 0]"] ;
179 -> 189 ;
190 [label="distance_day <= 277.0\nentropy = 0.035\nsamples = 12225\nvalue = [12180, 45]"] ;
162 -> 190 ;
191 [label="model_num <= 12.204\nentropy = 0.058\nsamples = 6510\nvalue = [6466, 44]"] ;
190 -> 191 ;
192 [label="chinese_subscribe_num <= 0.149\nentropy = 0.029\nsamples = 5335\nvalue = [5319, 16]"] ;
191 -> 192 ;
193 [label="click_dialog <= 1.5\nentropy = 0.007\nsamples = 3397\nvalue = [3395, 2]"] ;
192 -> 193 ;
194 [label="entropy = 0.0\nsamples = 2883\nvalue = [2883, 0]"] ;
193 -> 194 ;
195 [label="next_nize <= 50.5\nentropy = 0.037\nsamples = 514\nvalue = [512, 2]"] ;
193 -> 195 ;
196 [label="entropy = 0.0\nsamples = 408\nvalue = [408, 0]"] ;
195 -> 196 ;
197 [label="entropy = 0.135\nsamples = 106\nvalue = [104, 2]"] ;
195 -> 197 ;
198 [label="answer_task <= 20.5\nentropy = 0.062\nsamples = 1938\nvalue = [1924, 14]"] ;
192 -> 198 ;
199 [label="study_num <= 0.649\nentropy = 0.094\nsamples = 1166\nvalue = [1152, 14]"] ;
198 -> 199 ;
200 [label="entropy = 0.0\nsamples = 1\nvalue = [0, 1]"] ;
199 -> 200 ;
201 [label="entropy = 0.088\nsamples = 1165\nvalue = [1152, 13]"] ;
199 -> 201 ;
202 [label="entropy = 0.0\nsamples = 772\nvalue = [772, 0]"] ;
198 -> 202 ;
203 [label="learn_num <= 3.677\nentropy = 0.162\nsamples = 1175\nvalue = [1147, 28]"] ;
191 -> 203 ;
204 [label="next_nize <= 24.5\nentropy = 0.268\nsamples = 415\nvalue = [396, 19]"] ;
203 -> 204 ;
205 [label="finish_num <= 0.5\nentropy = 0.143\nsamples = 345\nvalue = [338, 7]"] ;
204 -> 205 ;
206 [label="entropy = 0.252\nsamples = 166\nvalue = [159, 7]"] ;
205 -> 206 ;
207 [label="entropy = 0.0\nsamples = 179\nvalue = [179, 0]"] ;
205 -> 207 ;
208 [label="login_time <= 381.5\nentropy = 0.661\nsamples = 70\nvalue = [58, 12]"] ;
204 -> 208 ;
209 [label="entropy = 0.569\nsamples = 67\nvalue = [58, 9]"] ;
208 -> 209 ;
210 [label="entropy = 0.0\nsamples = 3\nvalue = [0, 3]"] ;
208 -> 210 ;
211 [label="main_mime <= 0.491\nentropy = 0.093\nsamples = 760\nvalue = [751, 9]"] ;
203 -> 211 ;
212 [label="entropy = 0.0\nsamples = 451\nvalue = [451, 0]"] ;
211 -> 212 ;
213 [label="mainpage <= 16.5\nentropy = 0.19\nsamples = 309\nvalue = [300, 9]"] ;
211 -> 213 ;
214 [label="entropy = 0.097\nsamples = 241\nvalue = [238, 3]"] ;
213 -> 214 ;
215 [label="entropy = 0.431\nsamples = 68\nvalue = [62, 6]"] ;
213 -> 215 ;
216 [label="distance_day <= 2459.5\nentropy = 0.002\nsamples = 5715\nvalue = [5714, 1]"] ;
190 -> 216 ;
217 [label="entropy = 0.0\nsamples = 5714\nvalue = [5714, 0]"] ;
216 -> 217 ;
218 [label="entropy = 0.0\nsamples = 1\nvalue = [0, 1]"] ;
216 -> 218 ;
219 [label="platform_num <= 10.144\nentropy = 0.21\nsamples = 903\nvalue = [873, 30]"] ;
161 -> 219 ;
220 [label="main_home2 <= 81.5\nentropy = 0.137\nsamples = 882\nvalue = [865, 17]"] ;
219 -> 220 ;
221 [label="chinese_subscribe_num <= 0.5\nentropy = 0.239\nsamples = 432\nvalue = [415, 17]"] ;
220 -> 221 ;
222 [label="baby_info <= 1.0\nentropy = 0.102\nsamples = 300\nvalue = [296, 4]"] ;
221 -> 222 ;
223 [label="distance_day <= 43.0\nentropy = 0.378\nsamples = 41\nvalue = [38, 3]"] ;
222 -> 223 ;
224 [label="distance_day <= 37.5\nentropy = 0.971\nsamples = 5\nvalue = [3, 2]"] ;
223 -> 224 ;
225 [label="entropy = 0.0\nsamples = 2\nvalue = [2, 0]"] ;
224 -> 225 ;
226 [label="entropy = 0.918\nsamples = 3\nvalue = [1, 2]"] ;
224 -> 226 ;
227 [label="model_num <= 12.514\nentropy = 0.183\nsamples = 36\nvalue = [35, 1]"] ;
223 -> 227 ;
228 [label="entropy = 0.0\nsamples = 31\nvalue = [31, 0]"] ;
227 -> 228 ;
229 [label="entropy = 0.722\nsamples = 5\nvalue = [4, 1]"] ;
227 -> 229 ;
230 [label="lightcoursetab <= 5.5\nentropy = 0.037\nsamples = 259\nvalue = [258, 1]"] ;
222 -> 230 ;
231 [label="entropy = 0.0\nsamples = 251\nvalue = [251, 0]"] ;
230 -> 231 ;
232 [label="video_read <= 28.5\nentropy = 0.544\nsamples = 8\nvalue = [7, 1]"] ;
230 -> 232 ;
233 [label="entropy = 0.0\nsamples = 6\nvalue = [6, 0]"] ;
232 -> 233 ;
234 [label="entropy = 1.0\nsamples = 2\nvalue = [1, 1]"] ;
232 -> 234 ;
235 [label="course_order_num <= 2.5\nentropy = 0.464\nsamples = 132\nvalue = [119, 13]"] ;
221 -> 235 ;
236 [label="login_diff_time <= 0.71\nentropy = 0.096\nsamples = 81\nvalue = [80, 1]"] ;
235 -> 236 ;
237 [label="click_notunlocked <= 0.5\nentropy = 0.918\nsamples = 3\nvalue = [2, 1]"] ;
236 -> 237 ;
238 [label="entropy = 0.0\nsamples = 1\nvalue = [0, 1]"] ;
237 -> 238 ;
239 [label="entropy = 0.0\nsamples = 2\nvalue = [2, 0]"] ;
237 -> 239 ;
240 [label="entropy = 0.0\nsamples = 78\nvalue = [78, 0]"] ;
236 -> 240 ;
241 [label="ppt <= 2.0\nentropy = 0.787\nsamples = 51\nvalue = [39, 12]"] ;
235 -> 241 ;
242 [label="main_home2 <= 55.0\nentropy = 0.997\nsamples = 15\nvalue = [7, 8]"] ;
241 -> 242 ;
243 [label="entropy = 0.98\nsamples = 12\nvalue = [7, 5]"] ;
242 -> 243 ;
244 [label="entropy = 0.0\nsamples = 3\nvalue = [0, 3]"] ;
242 -> 244 ;
245 [label="slide_subscribe <= 4.5\nentropy = 0.503\nsamples = 36\nvalue = [32, 4]"] ;
241 -> 245 ;
246 [label="entropy = 0.0\nsamples = 22\nvalue = [22, 0]"] ;
245 -> 246 ;
247 [label="entropy = 0.863\nsamples = 14\nvalue = [10, 4]"] ;
245 -> 247 ;
248 [label="entropy = 0.0\nsamples = 450\nvalue = [450, 0]"] ;
220 -> 248 ;
249 [label="learn_num <= 3.5\nentropy = 0.959\nsamples = 21\nvalue = [8, 13]"] ;
219 -> 249 ;
250 [label="entropy = 0.0\nsamples = 10\nvalue = [0, 10]"] ;
249 -> 250 ;
251 [label="main_mime <= 1.5\nentropy = 0.845\nsamples = 11\nvalue = [8, 3]"] ;
249 -> 251 ;
252 [label="next_nize <= 115.5\nentropy = 0.503\nsamples = 9\nvalue = [8, 1]"] ;
251 -> 252 ;
253 [label="entropy = 0.0\nsamples = 8\nvalue = [8, 0]"] ;
252 -> 253 ;
254 [label="entropy = 0.0\nsamples = 1\nvalue = [0, 1]"] ;
252 -> 254 ;
255 [label="entropy = 0.0\nsamples = 2\nvalue = [0, 2]"] ;
251 -> 255 ;
256 [label="distance_day <= 31.995\nentropy = 0.961\nsamples = 13821\nvalue = [8515, 5306]"] ;
0 -> 256 [labeldistance=2.5, labelangle=-45, headlabel="False"] ;
257 [label="login_day <= 6.0\nentropy = 0.882\nsamples = 5724\nvalue = [1719, 4005]"] ;
256 -> 257 ;
258 [label="login_diff_time <= 1.399\nentropy = 0.601\nsamples = 3490\nvalue = [511, 2979]"] ;
257 -> 258 ;
259 [label="share <= 0.006\nentropy = 0.346\nsamples = 2794\nvalue = [181, 2613]"] ;
258 -> 259 ;
260 [label="camp_num <= 0.951\nentropy = 0.864\nsamples = 311\nvalue = [89, 222]"] ;
259 -> 260 ;
261 [label="model_num <= 11.152\nentropy = 0.274\nsamples = 106\nvalue = [5, 101]"] ;
260 -> 261 ;
262 [label="model_num <= 10.627\nentropy = 0.429\nsamples = 57\nvalue = [5, 52]"] ;
261 -> 262 ;
263 [label="age_month <= 90.5\nentropy = 0.146\nsamples = 48\nvalue = [1, 47]"] ;
262 -> 263 ;
264 [label="entropy = 0.0\nsamples = 46\nvalue = [0, 46]"] ;
263 -> 264 ;
265 [label="entropy = 1.0\nsamples = 2\nvalue = [1, 1]"] ;
263 -> 265 ;
266 [label="age_month <= 81.5\nentropy = 0.991\nsamples = 9\nvalue = [4, 5]"] ;
262 -> 266 ;
267 [label="entropy = 0.863\nsamples = 7\nvalue = [2, 5]"] ;
266 -> 267 ;
268 [label="entropy = 0.0\nsamples = 2\nvalue = [2, 0]"] ;
266 -> 268 ;
269 [label="entropy = 0.0\nsamples = 49\nvalue = [0, 49]"] ;
261 -> 269 ;
270 [label="login_time <= 10.5\nentropy = 0.976\nsamples = 205\nvalue = [84, 121]"] ;
260 -> 270 ;
271 [label="task <= 3.5\nentropy = 0.806\nsamples = 77\nvalue = [58, 19]"] ;
270 -> 271 ;
272 [label="platform_num <= 12.431\nentropy = 0.692\nsamples = 70\nvalue = [57, 13]"] ;
271 -> 272 ;
273 [label="entropy = 0.789\nsamples = 55\nvalue = [42, 13]"] ;
272 -> 273 ;
274 [label="entropy = 0.0\nsamples = 15\nvalue = [15, 0]"] ;
272 -> 274 ;
275 [label="age_month <= 73.5\nentropy = 0.592\nsamples = 7\nvalue = [1, 6]"] ;
271 -> 275 ;
276 [label="entropy = 0.0\nsamples = 6\nvalue = [0, 6]"] ;
275 -> 276 ;
277 [label="entropy = 0.0\nsamples = 1\nvalue = [1, 0]"] ;
275 -> 277 ;
278 [label="camp_num <= 2.853\nentropy = 0.728\nsamples = 128\nvalue = [26, 102]"] ;
270 -> 278 ;
279 [label="login_diff_time <= 0.959\nentropy = 0.592\nsamples = 112\nvalue = [16, 96]"] ;
278 -> 279 ;
280 [label="entropy = 0.27\nsamples = 65\nvalue = [3, 62]"] ;
279 -> 280 ;
281 [label="entropy = 0.851\nsamples = 47\nvalue = [13, 34]"] ;
279 -> 281 ;
282 [label="login_time <= 67.0\nentropy = 0.954\nsamples = 16\nvalue = [10, 6]"] ;
278 -> 282 ;
283 [label="entropy = 0.0\nsamples = 7\nvalue = [7, 0]"] ;
282 -> 283 ;
284 [label="entropy = 0.918\nsamples = 9\nvalue = [3, 6]"] ;
282 -> 284 ;
285 [label="camp_num <= 1.997\nentropy = 0.229\nsamples = 2483\nvalue = [92, 2391]"] ;
259 -> 285 ;
286 [label="login_diff_time <= 1.0\nentropy = 0.096\nsamples = 1451\nvalue = [18, 1433]"] ;
285 -> 286 ;
287 [label="learn_num <= 4.993\nentropy = 0.028\nsamples = 1068\nvalue = [3, 1065]"] ;
286 -> 287 ;
288 [label="entropy = 0.0\nsamples = 898\nvalue = [0, 898]"] ;
287 -> 288 ;
289 [label="course_tab <= 3.02\nentropy = 0.128\nsamples = 170\nvalue = [3, 167]"] ;
287 -> 289 ;
290 [label="entropy = 0.629\nsamples = 19\nvalue = [3, 16]"] ;
289 -> 290 ;
291 [label="entropy = 0.0\nsamples = 151\nvalue = [0, 151]"] ;
289 -> 291 ;
292 [label="finish_num <= 4.966\nentropy = 0.238\nsamples = 383\nvalue = [15, 368]"] ;
286 -> 292 ;
293 [label="next_nize <= 21.012\nentropy = 0.143\nsamples = 346\nvalue = [7, 339]"] ;
292 -> 293 ;
294 [label="entropy = 0.332\nsamples = 98\nvalue = [6, 92]"] ;
293 -> 294 ;
295 [label="entropy = 0.038\nsamples = 248\nvalue = [1, 247]"] ;
293 -> 295 ;
296 [label="mainpage <= 6.5\nentropy = 0.753\nsamples = 37\nvalue = [8, 29]"] ;
292 -> 296 ;
297 [label="entropy = 0.971\nsamples = 10\nvalue = [6, 4]"] ;
296 -> 297 ;
298 [label="entropy = 0.381\nsamples = 27\nvalue = [2, 25]"] ;
296 -> 298 ;
299 [label="course_order_num <= 0.001\nentropy = 0.372\nsamples = 1032\nvalue = [74, 958]"] ;
285 -> 299 ;
300 [label="first_order_price <= 0.015\nentropy = 0.529\nsamples = 525\nvalue = [63, 462]"] ;
299 -> 300 ;
301 [label="schoolreportpage <= 2.151\nentropy = 0.673\nsamples = 328\nvalue = [58, 270]"] ;
300 -> 301 ;
302 [label="entropy = 0.918\nsamples = 93\nvalue = [31, 62]"] ;
301 -> 302 ;
303 [label="entropy = 0.515\nsamples = 235\nvalue = [27, 208]"] ;
301 -> 303 ;
304 [label="click_dialog <= 0.056\nentropy = 0.171\nsamples = 197\nvalue = [5, 192]"] ;
300 -> 304 ;
305 [label="entropy = 0.702\nsamples = 21\nvalue = [4, 17]"] ;
304 -> 305 ;
306 [label="entropy = 0.051\nsamples = 176\nvalue = [1, 175]"] ;
304 -> 306 ;
307 [label="login_diff_time <= 1.197\nentropy = 0.151\nsamples = 507\nvalue = [11, 496]"] ;
299 -> 307 ;
308 [label="model_num <= 0.68\nentropy = 0.073\nsamples = 452\nvalue = [4, 448]"] ;
307 -> 308 ;
309 [label="entropy = 0.0\nsamples = 1\nvalue = [1, 0]"] ;
308 -> 309 ;
310 [label="entropy = 0.058\nsamples = 451\nvalue = [3, 448]"] ;
308 -> 310 ;
311 [label="task <= 11.5\nentropy = 0.55\nsamples = 55\nvalue = [7, 48]"] ;
307 -> 311 ;
312 [label="entropy = 0.918\nsamples = 6\nvalue = [4, 2]"] ;
311 -> 312 ;
313 [label="entropy = 0.332\nsamples = 49\nvalue = [3, 46]"] ;
311 -> 313 ;
314 [label="study_num <= 0.033\nentropy = 0.998\nsamples = 696\nvalue = [330, 366]"] ;
258 -> 314 ;
315 [label="video_read <= 16.404\nentropy = 0.911\nsamples = 386\nvalue = [260, 126]"] ;
314 -> 315 ;
316 [label="login_time <= 36.5\nentropy = 0.446\nsamples = 183\nvalue = [166, 17]"] ;
315 -> 316 ;
317 [label="first_order_price <= 0.505\nentropy = 0.244\nsamples = 149\nvalue = [143, 6]"] ;
316 -> 317 ;
318 [label="share <= 10.5\nentropy = 0.067\nsamples = 126\nvalue = [125, 1]"] ;
317 -> 318 ;
319 [label="entropy = 0.0\nsamples = 124\nvalue = [124, 0]"] ;
318 -> 319 ;
320 [label="entropy = 1.0\nsamples = 2\nvalue = [1, 1]"] ;
318 -> 320 ;
321 [label="main_home <= 24.0\nentropy = 0.755\nsamples = 23\nvalue = [18, 5]"] ;
317 -> 321 ;
322 [label="entropy = 0.0\nsamples = 11\nvalue = [11, 0]"] ;
321 -> 322 ;
323 [label="entropy = 0.98\nsamples = 12\nvalue = [7, 5]"] ;
321 -> 323 ;
324 [label="distance_day <= 12.5\nentropy = 0.908\nsamples = 34\nvalue = [23, 11]"] ;
316 -> 324 ;
325 [label="entropy = 0.0\nsamples = 6\nvalue = [0, 6]"] ;
324 -> 325 ;
326 [label="model_num <= 19.627\nentropy = 0.677\nsamples = 28\nvalue = [23, 5]"] ;
324 -> 326 ;
327 [label="entropy = 0.25\nsamples = 24\nvalue = [23, 1]"] ;
326 -> 327 ;
328 [label="entropy = 0.0\nsamples = 4\nvalue = [0, 4]"] ;
326 -> 328 ;
329 [label="distance_day <= 23.323\nentropy = 0.996\nsamples = 203\nvalue = [94, 109]"] ;
315 -> 329 ;
330 [label="distance_day <= 7.5\nentropy = 0.989\nsamples = 164\nvalue = [92, 72]"] ;
329 -> 330 ;
331 [label="entropy = 0.0\nsamples = 12\nvalue = [0, 12]"] ;
330 -> 331 ;
332 [label="login_diff_time <= 5.079\nentropy = 0.968\nsamples = 152\nvalue = [92, 60]"] ;
330 -> 332 ;
333 [label="entropy = 0.944\nsamples = 144\nvalue = [92, 52]"] ;
332 -> 333 ;
334 [label="entropy = 0.0\nsamples = 8\nvalue = [0, 8]"] ;
332 -> 334 ;
335 [label="finish_num <= 4.902\nentropy = 0.292\nsamples = 39\nvalue = [2, 37]"] ;
329 -> 335 ;
336 [label="entropy = 0.0\nsamples = 35\nvalue = [0, 35]"] ;
335 -> 336 ;
337 [label="camp_num <= 1.5\nentropy = 1.0\nsamples = 4\nvalue = [2, 2]"] ;
335 -> 337 ;
338 [label="entropy = 0.0\nsamples = 2\nvalue = [2, 0]"] ;
337 -> 338 ;
339 [label="entropy = 0.0\nsamples = 2\nvalue = [0, 2]"] ;
337 -> 339 ;
340 [label="course_order_num <= 0.0\nentropy = 0.771\nsamples = 310\nvalue = [70, 240]"] ;
314 -> 340 ;
341 [label="schoolreportpage <= 1.051\nentropy = 0.952\nsamples = 156\nvalue = [58, 98]"] ;
340 -> 341 ;
342 [label="distance_day <= 23.5\nentropy = 0.969\nsamples = 63\nvalue = [38, 25]"] ;
341 -> 342 ;
343 [label="distance_day <= 5.5\nentropy = 0.905\nsamples = 53\nvalue = [36, 17]"] ;
342 -> 343 ;
344 [label="entropy = 0.0\nsamples = 4\nvalue = [0, 4]"] ;
343 -> 344 ;
345 [label="entropy = 0.835\nsamples = 49\nvalue = [36, 13]"] ;
343 -> 345 ;
346 [label="distance_day <= 28.5\nentropy = 0.722\nsamples = 10\nvalue = [2, 8]"] ;
342 -> 346 ;
347 [label="entropy = 0.0\nsamples = 8\nvalue = [0, 8]"] ;
346 -> 347 ;
348 [label="entropy = 0.0\nsamples = 2\nvalue = [2, 0]"] ;
346 -> 348 ;
349 [label="baby_info <= 0.721\nentropy = 0.751\nsamples = 93\nvalue = [20, 73]"] ;
341 -> 349 ;
350 [label="entropy = 0.0\nsamples = 4\nvalue = [4, 0]"] ;
349 -> 350 ;
351 [label="distance_day <= 21.152\nentropy = 0.68\nsamples = 89\nvalue = [16, 73]"] ;
349 -> 351 ;
352 [label="entropy = 0.825\nsamples = 58\nvalue = [15, 43]"] ;
351 -> 352 ;
353 [label="entropy = 0.206\nsamples = 31\nvalue = [1, 30]"] ;
351 -> 353 ;
354 [label="main_home <= 22.0\nentropy = 0.395\nsamples = 154\nvalue = [12, 142]"] ;
340 -> 354 ;
355 [label="launch_time <= 0.603\nentropy = 1.0\nsamples = 12\nvalue = [6, 6]"] ;
354 -> 355 ;
356 [label="main_mime <= 1.029\nentropy = 0.592\nsamples = 7\nvalue = [1, 6]"] ;
355 -> 356 ;
357 [label="entropy = 0.0\nsamples = 6\nvalue = [0, 6]"] ;
356 -> 357 ;
358 [label="entropy = 0.0\nsamples = 1\nvalue = [1, 0]"] ;
356 -> 358 ;
359 [label="entropy = 0.0\nsamples = 5\nvalue = [5, 0]"] ;
355 -> 359 ;
360 [label="math_subscribe_num <= 0.0\nentropy = 0.253\nsamples = 142\nvalue = [6, 136]"] ;
354 -> 360 ;
361 [label="answer_task <= 13.5\nentropy = 0.439\nsamples = 66\nvalue = [6, 60]"] ;
360 -> 361 ;
362 [label="entropy = 0.141\nsamples = 50\nvalue = [1, 49]"] ;
361 -> 362 ;
363 [label="entropy = 0.896\nsamples = 16\nvalue = [5, 11]"] ;
361 -> 363 ;
364 [label="entropy = 0.0\nsamples = 76\nvalue = [0, 76]"] ;
360 -> 364 ;
365 [label="course_order_num <= 0.007\nentropy = 0.995\nsamples = 2234\nvalue = [1208, 1026]"] ;
257 -> 365 ;
366 [label="login_diff_time <= 0.857\nentropy = 0.875\nsamples = 1394\nvalue = [983, 411]"] ;
365 -> 366 ;
367 [label="learn_num <= 3.5\nentropy = 0.769\nsamples = 129\nvalue = [29, 100]"] ;
366 -> 367 ;
368 [label="entropy = 0.0\nsamples = 31\nvalue = [0, 31]"] ;
367 -> 368 ;
369 [label="baby_info <= 0.5\nentropy = 0.876\nsamples = 98\nvalue = [29, 69]"] ;
367 -> 369 ;
370 [label="chapter_module <= 16.0\nentropy = 0.954\nsamples = 24\nvalue = [15, 9]"] ;
369 -> 370 ;
371 [label="model_num <= 14.342\nentropy = 0.391\nsamples = 13\nvalue = [12, 1]"] ;
370 -> 371 ;
372 [label="entropy = 0.0\nsamples = 11\nvalue = [11, 0]"] ;
371 -> 372 ;
373 [label="entropy = 1.0\nsamples = 2\nvalue = [1, 1]"] ;
371 -> 373 ;
374 [label="lightcoursetab <= 2.5\nentropy = 0.845\nsamples = 11\nvalue = [3, 8]"] ;
370 -> 374 ;
375 [label="entropy = 0.0\nsamples = 7\nvalue = [0, 7]"] ;
374 -> 375 ;
376 [label="entropy = 0.811\nsamples = 4\nvalue = [3, 1]"] ;
374 -> 376 ;
377 [label="baby_info <= 9.5\nentropy = 0.7\nsamples = 74\nvalue = [14, 60]"] ;
369 -> 377 ;
378 [label="finish_num <= 4.902\nentropy = 0.592\nsamples = 70\nvalue = [10, 60]"] ;
377 -> 378 ;
379 [label="entropy = 0.0\nsamples = 24\nvalue = [0, 24]"] ;
378 -> 379 ;
380 [label="entropy = 0.755\nsamples = 46\nvalue = [10, 36]"] ;
378 -> 380 ;
381 [label="entropy = 0.0\nsamples = 4\nvalue = [4, 0]"] ;
377 -> 381 ;
382 [label="distance_day <= 6.5\nentropy = 0.805\nsamples = 1265\nvalue = [954, 311]"] ;
366 -> 382 ;
383 [label="entropy = 0.0\nsamples = 34\nvalue = [0, 34]"] ;
382 -> 383 ;
384 [label="distance_day <= 23.197\nentropy = 0.769\nsamples = 1231\nvalue = [954, 277]"] ;
382 -> 384 ;
385 [label="learn_num <= 3.952\nentropy = 0.664\nsamples = 1066\nvalue = [882, 184]"] ;
384 -> 385 ;
386 [label="ppt <= 18.497\nentropy = 0.966\nsamples = 199\nvalue = [121, 78]"] ;
385 -> 386 ;
387 [label="entropy = 0.499\nsamples = 82\nvalue = [73, 9]"] ;
386 -> 387 ;
388 [label="entropy = 0.977\nsamples = 117\nvalue = [48, 69]"] ;
386 -> 388 ;
389 [label="study_num <= 0.083\nentropy = 0.536\nsamples = 867\nvalue = [761, 106]"] ;
385 -> 389 ;
390 [label="entropy = 0.355\nsamples = 491\nvalue = [458, 33]"] ;
389 -> 390 ;
391 [label="entropy = 0.71\nsamples = 376\nvalue = [303, 73]"] ;
389 -> 391 ;
392 [label="distance_day <= 29.885\nentropy = 0.988\nsamples = 165\nvalue = [72, 93]"] ;
384 -> 392 ;
393 [label="coupon <= 1.068\nentropy = 0.808\nsamples = 113\nvalue = [28, 85]"] ;
392 -> 393 ;
394 [label="entropy = 0.949\nsamples = 68\nvalue = [25, 43]"] ;
393 -> 394 ;
395 [label="entropy = 0.353\nsamples = 45\nvalue = [3, 42]"] ;
393 -> 395 ;
396 [label="coupon_visit <= 0.5\nentropy = 0.619\nsamples = 52\nvalue = [44, 8]"] ;
392 -> 396 ;
397 [label="entropy = 0.971\nsamples = 20\nvalue = [12, 8]"] ;
396 -> 397 ;
398 [label="entropy = 0.0\nsamples = 32\nvalue = [32, 0]"] ;
396 -> 398 ;
399 [label="study_num <= 0.003\nentropy = 0.838\nsamples = 840\nvalue = [225, 615]"] ;
365 -> 399 ;
400 [label="learn_num <= 4.941\nentropy = 1.0\nsamples = 247\nvalue = [125, 122]"] ;
399 -> 400 ;
401 [label="share <= 1.5\nentropy = 0.895\nsamples = 106\nvalue = [33, 73]"] ;
400 -> 401 ;
402 [label="chapter_module <= 4.5\nentropy = 0.852\nsamples = 18\nvalue = [13, 5]"] ;
401 -> 402 ;
403 [label="ppt <= 15.0\nentropy = 0.918\nsamples = 6\nvalue = [2, 4]"] ;
402 -> 403 ;
404 [label="entropy = 0.0\nsamples = 2\nvalue = [2, 0]"] ;
403 -> 404 ;
405 [label="entropy = 0.0\nsamples = 4\nvalue = [0, 4]"] ;
403 -> 405 ;
406 [label="mainpage <= 59.0\nentropy = 0.414\nsamples = 12\nvalue = [11, 1]"] ;
402 -> 406 ;
407 [label="entropy = 0.0\nsamples = 11\nvalue = [11, 0]"] ;
406 -> 407 ;
408 [label="entropy = 0.0\nsamples = 1\nvalue = [0, 1]"] ;
406 -> 408 ;
409 [label="age_month <= 58.5\nentropy = 0.773\nsamples = 88\nvalue = [20, 68]"] ;
401 -> 409 ;
410 [label="login_day <= 6.977\nentropy = 0.992\nsamples = 29\nvalue = [13, 16]"] ;
409 -> 410 ;
411 [label="entropy = 0.414\nsamples = 12\nvalue = [1, 11]"] ;
410 -> 411 ;
412 [label="entropy = 0.874\nsamples = 17\nvalue = [12, 5]"] ;
410 -> 412 ;
413 [label="click_notunlocked <= 9.5\nentropy = 0.525\nsamples = 59\nvalue = [7, 52]"] ;
409 -> 413 ;
414 [label="entropy = 0.376\nsamples = 55\nvalue = [4, 51]"] ;
413 -> 414 ;
415 [label="entropy = 0.811\nsamples = 4\nvalue = [3, 1]"] ;
413 -> 415 ;
416 [label="distance_day <= 23.023\nentropy = 0.932\nsamples = 141\nvalue = [92, 49]"] ;
400 -> 416 ;
417 [label="distance_day <= 18.5\nentropy = 0.822\nsamples = 113\nvalue = [84, 29]"] ;
416 -> 417 ;
418 [label="launch_time <= 2.5\nentropy = 0.993\nsamples = 40\nvalue = [22, 18]"] ;
417 -> 418 ;
419 [label="entropy = 0.998\nsamples = 34\nvalue = [16, 18]"] ;
418 -> 419 ;
420 [label="entropy = 0.0\nsamples = 6\nvalue = [6, 0]"] ;
418 -> 420 ;
421 [label="age_month <= 56.5\nentropy = 0.612\nsamples = 73\nvalue = [62, 11]"] ;
417 -> 421 ;
422 [label="entropy = 0.0\nsamples = 21\nvalue = [21, 0]"] ;
421 -> 422 ;
423 [label="entropy = 0.744\nsamples = 52\nvalue = [41, 11]"] ;
421 -> 423 ;
424 [label="distance_day <= 30.0\nentropy = 0.863\nsamples = 28\nvalue = [8, 20]"] ;
416 -> 424 ;
425 [label="main_home <= 52.0\nentropy = 0.559\nsamples = 23\nvalue = [3, 20]"] ;
424 -> 425 ;
426 [label="entropy = 0.0\nsamples = 3\nvalue = [3, 0]"] ;
425 -> 426 ;
427 [label="entropy = 0.0\nsamples = 20\nvalue = [0, 20]"] ;
425 -> 427 ;
428 [label="entropy = 0.0\nsamples = 5\nvalue = [5, 0]"] ;
424 -> 428 ;
429 [label="login_day <= 7.989\nentropy = 0.655\nsamples = 593\nvalue = [100, 493]"] ;
399 -> 429 ;
430 [label="chinese_subscribe_num <= 0.002\nentropy = 0.443\nsamples = 457\nvalue = [42, 415]"] ;
429 -> 430 ;
431 [label="model_num <= 6.492\nentropy = 0.838\nsamples = 86\nvalue = [23, 63]"] ;
430 -> 431 ;
432 [label="evaulationcenter <= 2.5\nentropy = 0.985\nsamples = 21\nvalue = [12, 9]"] ;
431 -> 432 ;
433 [label="entropy = 0.89\nsamples = 13\nvalue = [4, 9]"] ;
432 -> 433 ;
434 [label="entropy = 0.0\nsamples = 8\nvalue = [8, 0]"] ;
432 -> 434 ;
435 [label="course_order_num <= 1.5\nentropy = 0.656\nsamples = 65\nvalue = [11, 54]"] ;
431 -> 435 ;
436 [label="entropy = 0.868\nsamples = 38\nvalue = [11, 27]"] ;
435 -> 436 ;
437 [label="entropy = 0.0\nsamples = 27\nvalue = [0, 27]"] ;
435 -> 437 ;
438 [label="next_nize <= 224.5\nentropy = 0.292\nsamples = 371\nvalue = [19, 352]"] ;
430 -> 438 ;
439 [label="main_learnpark <= 6.733\nentropy = 0.269\nsamples = 369\nvalue = [17, 352]"] ;
438 -> 439 ;
440 [label="entropy = 0.197\nsamples = 328\nvalue = [10, 318]"] ;
439 -> 440 ;
441 [label="entropy = 0.659\nsamples = 41\nvalue = [7, 34]"] ;
439 -> 441 ;
442 [label="entropy = 0.0\nsamples = 2\nvalue = [2, 0]"] ;
438 -> 442 ;
443 [label="distance_day <= 23.049\nentropy = 0.984\nsamples = 136\nvalue = [58, 78]"] ;
429 -> 443 ;
444 [label="distance_day <= 12.5\nentropy = 1.0\nsamples = 118\nvalue = [58, 60]"] ;
443 -> 444 ;
445 [label="model_num <= 15.16\nentropy = 0.516\nsamples = 26\nvalue = [3, 23]"] ;
444 -> 445 ;
446 [label="entropy = 0.25\nsamples = 24\nvalue = [1, 23]"] ;
445 -> 446 ;
447 [label="entropy = 0.0\nsamples = 2\nvalue = [2, 0]"] ;
445 -> 447 ;
448 [label="chinese_subscribe_num <= 0.411\nentropy = 0.972\nsamples = 92\nvalue = [55, 37]"] ;
444 -> 448 ;
449 [label="entropy = 0.544\nsamples = 32\nvalue = [28, 4]"] ;
448 -> 449 ;
450 [label="entropy = 0.993\nsamples = 60\nvalue = [27, 33]"] ;
448 -> 450 ;
451 [label="entropy = 0.0\nsamples = 18\nvalue = [0, 18]"] ;
443 -> 451 ;
452 [label="distance_day <= 169.0\nentropy = 0.636\nsamples = 8097\nvalue = [6796, 1301]"] ;
256 -> 452 ;
453 [label="course_order_num <= 0.001\nentropy = 0.846\nsamples = 4690\nvalue = [3410, 1280]"] ;
452 -> 453 ;
454 [label="coupon_visit <= 0.99\nentropy = 0.676\nsamples = 3563\nvalue = [2929, 634]"] ;
453 -> 454 ;
455 [label="study_num <= 0.002\nentropy = 0.811\nsamples = 2163\nvalue = [1623, 540]"] ;
454 -> 455 ;
456 [label="model_num <= 9.763\nentropy = 0.679\nsamples = 1549\nvalue = [1271, 278]"] ;
455 -> 456 ;
457 [label="coupon_visit <= 0.025\nentropy = 0.523\nsamples = 772\nvalue = [681, 91]"] ;
456 -> 457 ;
458 [label="model_num <= 5.058\nentropy = 0.506\nsamples = 767\nvalue = [681, 86]"] ;
457 -> 458 ;
459 [label="entropy = 0.222\nsamples = 168\nvalue = [162, 6]"] ;
458 -> 459 ;
460 [label="entropy = 0.567\nsamples = 599\nvalue = [519, 80]"] ;
458 -> 460 ;
461 [label="entropy = 0.0\nsamples = 5\nvalue = [0, 5]"] ;
457 -> 461 ;
462 [label="first_order_price <= 0.176\nentropy = 0.796\nsamples = 777\nvalue = [590, 187]"] ;
456 -> 462 ;
463 [label="learn_num <= 6.5\nentropy = 0.705\nsamples = 584\nvalue = [472, 112]"] ;
462 -> 463 ;
464 [label="entropy = 0.734\nsamples = 543\nvalue = [431, 112]"] ;
463 -> 464 ;
465 [label="entropy = 0.0\nsamples = 41\nvalue = [41, 0]"] ;
463 -> 465 ;
466 [label="learn_num <= 4.5\nentropy = 0.964\nsamples = 193\nvalue = [118, 75]"] ;
462 -> 466 ;
467 [label="entropy = 1.0\nsamples = 131\nvalue = [64, 67]"] ;
466 -> 467 ;
468 [label="entropy = 0.555\nsamples = 62\nvalue = [54, 8]"] ;
466 -> 468 ;
469 [label="study_num <= 0.99\nentropy = 0.984\nsamples = 614\nvalue = [352, 262]"] ;
455 -> 469 ;
470 [label="entropy = 0.0\nsamples = 54\nvalue = [0, 54]"] ;
469 -> 470 ;
471 [label="learn_num <= 4.942\nentropy = 0.952\nsamples = 560\nvalue = [352, 208]"] ;
469 -> 471 ;
472 [label="chinese_subscribe_num <= 0.071\nentropy = 1.0\nsamples = 299\nvalue = [147, 152]"] ;
471 -> 472 ;
473 [label="entropy = 0.921\nsamples = 137\nvalue = [91, 46]"] ;
472 -> 473 ;
474 [label="entropy = 0.93\nsamples = 162\nvalue = [56, 106]"] ;
472 -> 474 ;
475 [label="main_home2 <= 54.5\nentropy = 0.75\nsamples = 261\nvalue = [205, 56]"] ;
471 -> 475 ;
476 [label="entropy = 0.94\nsamples = 87\nvalue = [56, 31]"] ;
475 -> 476 ;
477 [label="entropy = 0.594\nsamples = 174\nvalue = [149, 25]"] ;
475 -> 477 ;
478 [label="coupon <= 1.185\nentropy = 0.355\nsamples = 1400\nvalue = [1306, 94]"] ;
454 -> 478 ;
479 [label="first_order_price <= 4.396\nentropy = 0.168\nsamples = 1085\nvalue = [1058, 27]"] ;
478 -> 479 ;
480 [label="platform_num <= 11.427\nentropy = 0.087\nsamples = 913\nvalue = [903, 10]"] ;
479 -> 480 ;
481 [label="entropy = 0.0\nsamples = 647\nvalue = [647, 0]"] ;
480 -> 481 ;
482 [label="login_day <= 7.259\nentropy = 0.231\nsamples = 266\nvalue = [256, 10]"] ;
480 -> 482 ;
483 [label="entropy = 0.179\nsamples = 259\nvalue = [252, 7]"] ;
482 -> 483 ;
484 [label="entropy = 0.985\nsamples = 7\nvalue = [4, 3]"] ;
482 -> 484 ;
485 [label="main_home <= 106.5\nentropy = 0.465\nsamples = 172\nvalue = [155, 17]"] ;
479 -> 485 ;
486 [label="answer_task <= 40.5\nentropy = 0.595\nsamples = 118\nvalue = [101, 17]"] ;
485 -> 486 ;
487 [label="entropy = 0.534\nsamples = 115\nvalue = [101, 14]"] ;
486 -> 487 ;
488 [label="entropy = 0.0\nsamples = 3\nvalue = [0, 3]"] ;
486 -> 488 ;
489 [label="entropy = 0.0\nsamples = 54\nvalue = [54, 0]"] ;
485 -> 489 ;
490 [label="chinese_subscribe_num <= 0.04\nentropy = 0.747\nsamples = 315\nvalue = [248, 67]"] ;
478 -> 490 ;
491 [label="distance_day <= 42.5\nentropy = 0.563\nsamples = 174\nvalue = [151, 23]"] ;
490 -> 491 ;
492 [label="entropy = 0.0\nsamples = 44\nvalue = [44, 0]"] ;
491 -> 492 ;
493 [label="first_order_price <= 2.118\nentropy = 0.673\nsamples = 130\nvalue = [107, 23]"] ;
491 -> 493 ;
494 [label="entropy = 0.553\nsamples = 109\nvalue = [95, 14]"] ;
493 -> 494 ;
495 [label="entropy = 0.985\nsamples = 21\nvalue = [12, 9]"] ;
493 -> 495 ;
496 [label="main_home <= 143.5\nentropy = 0.896\nsamples = 141\nvalue = [97, 44]"] ;
490 -> 496 ;
497 [label="model_num <= 14.111\nentropy = 0.943\nsamples = 122\nvalue = [78, 44]"] ;
496 -> 497 ;
498 [label="entropy = 0.875\nsamples = 105\nvalue = [74, 31]"] ;
497 -> 498 ;
499 [label="entropy = 0.787\nsamples = 17\nvalue = [4, 13]"] ;
497 -> 499 ;
500 [label="entropy = 0.0\nsamples = 19\nvalue = [19, 0]"] ;
496 -> 500 ;
501 [label="coupon_visit <= 0.973\nentropy = 0.984\nsamples = 1127\nvalue = [481, 646]"] ;
453 -> 501 ;
502 [label="chinese_subscribe_num <= 0.002\nentropy = 0.769\nsamples = 644\nvalue = [145, 499]"] ;
501 -> 502 ;
503 [label="age_month <= 97.0\nentropy = 0.981\nsamples = 220\nvalue = [92, 128]"] ;
502 -> 503 ;
504 [label="distance_day <= 156.0\nentropy = 0.963\nsamples = 209\nvalue = [81, 128]"] ;
503 -> 504 ;
505 [label="distance_day <= 79.0\nentropy = 0.981\nsamples = 193\nvalue = [81, 112]"] ;
504 -> 505 ;
506 [label="entropy = 0.941\nsamples = 148\nvalue = [53, 95]"] ;
505 -> 506 ;
507 [label="entropy = 0.956\nsamples = 45\nvalue = [28, 17]"] ;
505 -> 507 ;
508 [label="entropy = 0.0\nsamples = 16\nvalue = [0, 16]"] ;
504 -> 508 ;
509 [label="entropy = 0.0\nsamples = 11\nvalue = [11, 0]"] ;
503 -> 509 ;
510 [label="course_order_num <= 0.998\nentropy = 0.544\nsamples = 424\nvalue = [53, 371]"] ;
502 -> 510 ;
511 [label="entropy = 0.0\nsamples = 84\nvalue = [0, 84]"] ;
510 -> 511 ;
512 [label="learn_num <= 4.953\nentropy = 0.624\nsamples = 340\nvalue = [53, 287]"] ;
510 -> 512 ;
513 [label="distance_day <= 62.577\nentropy = 0.502\nsamples = 253\nvalue = [28, 225]"] ;
512 -> 513 ;
514 [label="entropy = 0.246\nsamples = 147\nvalue = [6, 141]"] ;
513 -> 514 ;
515 [label="entropy = 0.737\nsamples = 106\nvalue = [22, 84]"] ;
513 -> 515 ;
516 [label="main_mime <= 1.5\nentropy = 0.865\nsamples = 87\nvalue = [25, 62]"] ;
512 -> 516 ;
517 [label="entropy = 0.709\nsamples = 62\nvalue = [12, 50]"] ;
516 -> 517 ;
518 [label="entropy = 0.999\nsamples = 25\nvalue = [13, 12]"] ;
516 -> 518 ;
519 [label="coupon <= 1.086\nentropy = 0.887\nsamples = 483\nvalue = [336, 147]"] ;
501 -> 519 ;
520 [label="chinese_subscribe_num <= 0.036\nentropy = 0.469\nsamples = 260\nvalue = [234, 26]"] ;
519 -> 520 ;
521 [label="login_time <= 3.5\nentropy = 0.062\nsamples = 139\nvalue = [138, 1]"] ;
520 -> 521 ;
522 [label="first_order_price <= 4.5\nentropy = 0.544\nsamples = 8\nvalue = [7, 1]"] ;
521 -> 522 ;
523 [label="entropy = 0.0\nsamples = 7\nvalue = [7, 0]"] ;
522 -> 523 ;
524 [label="entropy = 0.0\nsamples = 1\nvalue = [0, 1]"] ;
522 -> 524 ;
525 [label="entropy = 0.0\nsamples = 131\nvalue = [131, 0]"] ;
521 -> 525 ;
526 [label="learn_num <= 3.933\nentropy = 0.735\nsamples = 121\nvalue = [96, 25]"] ;
520 -> 526 ;
527 [label="mainpage <= 14.5\nentropy = 0.971\nsamples = 45\nvalue = [27, 18]"] ;
526 -> 527 ;
528 [label="entropy = 0.868\nsamples = 38\nvalue = [27, 11]"] ;
527 -> 528 ;
529 [label="entropy = 0.0\nsamples = 7\nvalue = [0, 7]"] ;
527 -> 529 ;
530 [label="age_month <= 88.5\nentropy = 0.443\nsamples = 76\nvalue = [69, 7]"] ;
526 -> 530 ;
531 [label="entropy = 0.273\nsamples = 64\nvalue = [61, 3]"] ;
530 -> 531 ;
532 [label="entropy = 0.918\nsamples = 12\nvalue = [8, 4]"] ;
530 -> 532 ;
533 [label="chinese_subscribe_num <= 0.002\nentropy = 0.995\nsamples = 223\nvalue = [102, 121]"] ;
519 -> 533 ;
534 [label="model_num <= 11.086\nentropy = 0.767\nsamples = 85\nvalue = [66, 19]"] ;
533 -> 534 ;
535 [label="learn_num <= 2.5\nentropy = 0.429\nsamples = 57\nvalue = [52, 5]"] ;
534 -> 535 ;
536 [label="entropy = 0.811\nsamples = 16\nvalue = [12, 4]"] ;
535 -> 536 ;
537 [label="entropy = 0.165\nsamples = 41\nvalue = [40, 1]"] ;
535 -> 537 ;
538 [label="schoolreportpage <= 6.609\nentropy = 1.0\nsamples = 28\nvalue = [14, 14]"] ;
534 -> 538 ;
539 [label="entropy = 0.946\nsamples = 22\nvalue = [8, 14]"] ;
538 -> 539 ;
540 [label="entropy = 0.0\nsamples = 6\nvalue = [6, 0]"] ;
538 -> 540 ;
541 [label="chinese_subscribe_num <= 0.994\nentropy = 0.828\nsamples = 138\nvalue = [36, 102]"] ;
533 -> 541 ;
542 [label="entropy = 0.0\nsamples = 24\nvalue = [0, 24]"] ;
541 -> 542 ;
543 [label="model_num <= 3.021\nentropy = 0.9\nsamples = 114\nvalue = [36, 78]"] ;
541 -> 543 ;
544 [label="entropy = 0.0\nsamples = 5\nvalue = [5, 0]"] ;
543 -> 544 ;
545 [label="entropy = 0.861\nsamples = 109\nvalue = [31, 78]"] ;
543 -> 545 ;
546 [label="distance_day <= 571.5\nentropy = 0.054\nsamples = 3407\nvalue = [3386, 21]"] ;
452 -> 546 ;
547 [label="distance_day <= 356.5\nentropy = 0.031\nsamples = 3397\nvalue = [3386, 11]"] ;
546 -> 547 ;
548 [label="login_diff_time <= 3.25\nentropy = 0.252\nsamples = 261\nvalue = [250, 11]"] ;
547 -> 548 ;
549 [label="camp_num <= 0.5\nentropy = 0.071\nsamples = 236\nvalue = [234, 2]"] ;
548 -> 549 ;
550 [label="main_home2 <= 10.5\nentropy = 0.402\nsamples = 25\nvalue = [23, 2]"] ;
549 -> 550 ;
551 [label="entropy = 0.0\nsamples = 19\nvalue = [19, 0]"] ;
550 -> 551 ;
552 [label="schoolreportpage <= 0.5\nentropy = 0.918\nsamples = 6\nvalue = [4, 2]"] ;
550 -> 552 ;
553 [label="entropy = 0.0\nsamples = 2\nvalue = [0, 2]"] ;
552 -> 553 ;
554 [label="entropy = 0.0\nsamples = 4\nvalue = [4, 0]"] ;
552 -> 554 ;
555 [label="entropy = 0.0\nsamples = 211\nvalue = [211, 0]"] ;
549 -> 555 ;
556 [label="distance_day <= 224.0\nentropy = 0.943\nsamples = 25\nvalue = [16, 9]"] ;
548 -> 556 ;
557 [label="entropy = 0.0\nsamples = 16\nvalue = [16, 0]"] ;
556 -> 557 ;
558 [label="entropy = 0.0\nsamples = 9\nvalue = [0, 9]"] ;
556 -> 558 ;
559 [label="entropy = 0.0\nsamples = 3136\nvalue = [3136, 0]"] ;
547 -> 559 ;
560 [label="entropy = 0.0\nsamples = 10\nvalue = [0, 10]"] ;
546 -> 560 ;
}